// #### Generated By: http://www.cufonfonts.com ####
/*!
 * The following copyright notice may not be removed under any circumstances.
 * 
 * Copyright:
 * Copyright © 1987, 2001 Adobe Systems Incorporated.  All rights reserved.
 * 
 * Trademark:
 * Orator
 * 
 * Full name:
 * OratorStd
 * 
 * Designer:
 * John Scheppler
 * 
 * Vendor URL:
 * http://www.adobe.com/type
 * 
 * License information:
 * http://www.adobe.com/type/legal.html
 */
Cufon.registerFont({"w":600,"face":{"font-family":"Orator Std Medium","font-weight":400,"font-stretch":"normal","units-per-em":"1000","panose-1":"2 13 5 9 2 2 3 3 2 4","ascent":"667","descent":"-333","x-height":"9","bbox":"0 -826 600 288","underline-thickness":"63","underline-position":"-28","stemh":"60","stemv":"67","unicode-range":"U+0020-U+20AC"},"glyphs":{" ":{},"!":{"d":"331,-207r-64,0r-18,-460r102,0xm254,0r0,-148r92,0r0,148r-92,0"},"\"":{"d":"176,-676r92,0r0,111r-27,135r-38,0r-27,-135r0,-111xm333,-676r92,0r0,111r-27,135r-38,0r-27,-135r0,-111"},"#":{"d":"267,-805r44,0r-162,901r-45,0r61,-335r-134,0r8,-44r134,0r28,-157r-134,0r8,-44r134,0xm329,96r-45,0r165,-901r44,0r-58,321r135,0r-9,44r-134,0r-28,157r134,0r-8,44r-134,0"},"$":{"d":"332,-298r0,161v44,-2,82,-34,82,-80v0,-44,-40,-75,-82,-81xm262,-385r0,-145v-33,8,-56,42,-56,74v0,33,24,60,56,71xm262,-137r0,-181v-69,-18,-126,-66,-126,-141v0,-70,60,-123,126,-134r0,-83r70,0r0,83v57,5,106,43,140,87r-49,43v-45,-50,-65,-63,-91,-67r0,164v81,12,152,61,152,150v0,83,-74,141,-152,142r0,83r-70,0r0,-83v-62,-3,-114,-48,-146,-99r55,-40v23,34,47,70,91,76"},"%":{"d":"433,-116v0,-32,-10,-75,-49,-75v-40,0,-50,43,-50,75v0,32,10,75,50,75v39,0,49,-43,49,-75xm214,-676v54,1,90,31,149,31v40,0,84,-7,119,-30r36,20r-376,664r-60,-32r330,-580v-31,12,-67,10,-98,-1v28,83,-11,180,-100,179v-72,0,-110,-59,-110,-126v0,-66,38,-125,110,-125xm493,-116v0,66,-38,125,-109,125v-72,0,-110,-59,-110,-125v0,-66,38,-125,110,-125v71,0,109,59,109,125xm263,-551v0,-31,-10,-75,-49,-75v-40,0,-50,44,-50,75v0,32,10,76,50,76v39,0,49,-44,49,-76"},"&":{"d":"358,-87r-110,-149v-35,24,-62,46,-62,92v0,91,118,116,172,57xm264,-319v35,-26,83,-51,82,-104v0,-44,-25,-76,-72,-76v-41,0,-64,30,-64,69v0,34,15,62,54,111xm211,-284v-31,-41,-64,-82,-64,-142v0,-80,50,-136,130,-136v78,0,132,61,132,136v0,64,-30,103,-109,156r98,133v19,-29,26,-64,29,-98r66,13v-6,50,-23,101,-53,142r41,57r-51,37r-36,-49v-35,27,-74,44,-120,44v-87,0,-158,-63,-158,-152v0,-67,45,-106,95,-141"},"(":{"d":"362,-676r40,39v-90,86,-124,213,-124,332v0,120,34,246,124,332r-40,40v-206,-187,-206,-556,0,-743"},")":{"d":"198,-637r40,-39v207,187,206,555,0,743r-40,-40v90,-86,124,-212,124,-332v0,-119,-34,-246,-124,-332"},"*":{"d":"143,-564r100,10r-63,-74r68,-48r52,94r52,-94r68,48r-63,74r100,-10r0,88r-100,-9r63,73r-68,49r-52,-95r-52,95r-68,-49r63,-73r-100,9r0,-88xm300,-548v-15,0,-28,13,-28,28v0,16,13,28,28,28v15,0,28,-12,28,-28v0,-15,-13,-28,-28,-28"},"+":{"d":"566,-382r0,44r-244,0r0,244r-44,0r0,-244r-244,0r0,-44r244,0r0,-244r44,0r0,244r244,0"},",":{"d":"265,-148r92,0v10,105,-37,163,-111,207r-23,-55v50,-34,41,-83,42,-152"},"-":{"d":"189,-229r0,-63r222,0r0,63r-222,0"},".":{"d":"254,0r0,-148r92,0r0,148r-92,0"},"\/":{"d":"175,27r-46,0r296,-774r46,0"},"0":{"d":"300,-676v212,0,186,268,186,343v0,107,18,342,-186,342v-204,0,-186,-227,-186,-342v0,-157,-8,-343,186,-343xm300,-613v-126,0,-116,147,-116,280v0,262,48,279,116,279v77,0,116,-31,116,-279v0,-258,-45,-280,-116,-280"},"1":{"d":"279,-60r0,-526r-122,47r-21,-61r210,-80r0,620r143,0r0,60r-378,0r0,-60r168,0"},"2":{"d":"114,0r0,-60r247,-319v31,-40,56,-71,56,-125v0,-63,-42,-109,-107,-109v-79,0,-119,62,-129,134r-66,-9v16,-111,77,-188,195,-188v105,0,177,64,177,170v0,64,-32,114,-70,163r-218,283r287,0r0,60r-372,0"},"3":{"d":"192,-350r0,-54r197,-203r-278,0r0,-60r370,0r0,60r-185,189v104,-2,193,59,193,170v0,89,-47,158,-121,203v-55,34,-120,54,-248,54r0,-63v110,0,157,-12,192,-32v59,-32,107,-90,107,-160v0,-113,-125,-123,-227,-104"},"4":{"d":"371,-167r-261,0r99,-513r67,18r-86,435r181,0r0,-339r67,0r0,339r53,0r0,60r-53,0r0,167r-67,0r0,-167"},"5":{"d":"116,-54v177,10,298,-53,298,-192v0,-71,-48,-114,-118,-114v-42,0,-75,16,-111,35r-48,0r0,-342r342,0r0,60r-275,0r0,205v129,-57,281,6,280,156v0,87,-46,159,-118,205v-52,33,-120,50,-250,50r0,-63"},"6":{"d":"460,-618r-38,55v-31,-27,-64,-50,-107,-50v-121,0,-129,154,-132,243v40,-34,80,-54,133,-54v126,0,172,104,172,214v0,119,-64,219,-192,219v-172,0,-183,-208,-183,-335v0,-136,17,-350,199,-350v55,0,108,21,148,58xm183,-296v1,209,57,242,118,242v82,0,117,-72,117,-153v0,-76,-23,-154,-112,-154v-48,0,-89,33,-123,65"},"7":{"d":"153,-14r266,-593r-275,0r0,-60r372,0r-303,680"},"8":{"d":"300,-311v-59,37,-121,65,-121,144v0,69,54,113,121,113v67,0,121,-44,121,-113v0,-79,-62,-107,-121,-144xm300,-380v49,-33,99,-59,99,-126v0,-60,-36,-107,-99,-107v-63,0,-99,47,-99,107v0,67,50,93,99,126xm358,-345v75,38,133,82,133,175v0,109,-85,179,-191,179v-106,0,-191,-70,-191,-179v0,-93,58,-137,134,-175v-61,-38,-112,-84,-112,-161v0,-97,71,-170,169,-170v98,0,169,73,169,170v0,77,-50,123,-111,161"},"9":{"d":"140,-49r38,-55v31,28,65,50,108,50v121,0,128,-154,131,-243v-39,34,-80,54,-132,54v-126,0,-172,-103,-172,-214v0,-118,63,-219,191,-219v173,0,183,208,183,335v0,136,-17,350,-199,350v-54,0,-108,-21,-148,-58xm417,-370v0,-205,-54,-243,-117,-243v-82,0,-117,72,-117,154v0,76,22,153,112,153v47,0,89,-33,122,-64"},":":{"d":"254,0r0,-148r92,0r0,148r-92,0xm254,-284r0,-148r92,0r0,148r-92,0"},";":{"d":"265,-148r92,0v10,105,-37,163,-111,207r-23,-55v50,-34,41,-83,42,-152xm265,-284r0,-148r92,0r0,148r-92,0"},"<":{"d":"98,-360r379,-360r25,32r-340,328r340,328r-25,32"},"=":{"d":"566,-449r0,44r-532,0r0,-44r532,0xm566,-315r0,44r-532,0r0,-44r532,0"},">":{"d":"123,-720r379,360r-379,360r-25,-32r340,-328r-340,-328"},"?":{"d":"331,-220r-69,0v0,-82,1,-102,63,-153v42,-35,87,-71,87,-132v0,-62,-36,-108,-101,-108v-80,0,-115,69,-127,138r-66,-17v21,-107,73,-184,191,-184v103,0,173,65,173,169v0,77,-44,124,-99,171v-45,37,-53,50,-52,116xm250,0r0,-148r92,0r0,148r-92,0"},"@":{"d":"502,-131r24,63v-197,132,-507,112,-507,-210v0,-182,100,-398,306,-398v106,0,256,80,256,278v0,91,-41,228,-152,228v-41,0,-55,-12,-83,-41v-30,26,-50,41,-92,41v-53,0,-91,-37,-91,-90v0,-52,22,-118,54,-159v29,-37,73,-64,211,-59r-32,205v0,22,10,40,34,40v64,0,81,-111,81,-160v0,-132,-77,-220,-192,-220v-117,0,-230,121,-230,337v0,138,77,222,196,222v82,0,149,-33,217,-77xm346,-389r5,-26v-25,5,-55,7,-73,29v-24,29,-45,82,-45,121v0,15,7,32,26,32v30,0,63,-31,87,-156"},"A":{"d":"391,-206r-182,0r-52,219r-66,-18r169,-662r80,0r169,662r-66,18xm375,-266r-74,-312r-2,0r-74,312r150,0"},"B":{"d":"243,-60r91,0v60,0,101,-44,101,-141v-1,-131,-77,-137,-192,-132r0,273xm243,-393v97,7,161,-11,161,-106v0,-97,-63,-112,-161,-108r0,214xm337,0r-215,0r0,-60r54,0r0,-547r-54,0r0,-60r204,0v73,0,148,61,148,168v0,55,-22,102,-71,129v75,33,102,90,102,170v0,139,-76,200,-168,200"},"C":{"d":"432,-138r55,38v-39,63,-97,109,-173,109v-174,0,-200,-210,-200,-342v0,-133,26,-343,200,-343v76,0,128,44,163,108r-57,34v-21,-42,-55,-79,-106,-79v-122,0,-130,192,-130,280v0,87,8,279,130,279v52,0,93,-43,118,-84"},"D":{"d":"173,-607r-54,0r0,-60v268,-2,389,-35,389,334v0,147,-8,333,-211,333r-178,0r0,-60r54,0r0,-547xm240,-607r0,547r55,0v81,0,143,-21,143,-273v0,-254,-68,-274,-127,-274r-71,0"},"E":{"d":"157,0r0,-667r325,0r0,60r-258,0r0,220r213,0r0,60r-213,0r0,267r258,0r0,60r-325,0"},"F":{"d":"176,0r0,-667r328,0r0,60r-261,0r0,220r219,0r0,60r-219,0r0,327r-67,0"},"G":{"d":"476,-346r0,297v-43,35,-99,58,-155,58v-172,0,-202,-208,-202,-341v0,-125,29,-344,195,-344v75,0,130,46,167,107r-59,36v-24,-43,-59,-80,-112,-80v-111,0,-121,204,-121,283v0,229,67,276,133,276v28,0,64,-12,87,-31r0,-201r-125,0r0,-60r192,0"},"H":{"d":"130,0r0,-667r67,0r0,280r206,0r0,-280r67,0r0,667r-67,0r0,-327r-206,0r0,327r-67,0"},"I":{"d":"266,-60r0,-547r-90,0r0,-60r248,0r0,60r-91,0r0,547r91,0r0,60r-248,0r0,-60r90,0"},"J":{"d":"109,-242r67,0v-3,95,-3,188,99,188v60,0,96,-54,96,-130r0,-483r67,0r0,490v0,127,-82,186,-168,186v-82,0,-161,-58,-161,-189r0,-62"},"K":{"d":"229,-667r0,275r18,0r186,-288r54,34r-183,282r219,343r-56,34r-215,-345r-23,0r0,332r-67,0r0,-667r67,0"},"L":{"d":"169,0r0,-667r67,0r0,607r274,0r0,60r-341,0"},"M":{"d":"300,-384r96,-283r84,0r20,667r-71,0r-13,-556r-2,0r-114,335r-114,-335r-2,0r-13,556r-70,0r20,-667r83,0"},"N":{"d":"126,0r0,-667r84,0r198,561v6,-45,-1,-102,-1,-151r0,-410r67,0r0,667r-84,0r-198,-562v-6,45,1,104,1,153r0,409r-67,0"},"O":{"d":"300,-676v188,0,185,254,185,342v0,84,3,343,-185,343v-190,0,-185,-257,-185,-343v0,-110,7,-342,185,-342xm300,-613v-118,0,-115,181,-115,279v0,180,21,280,115,280v116,0,115,-164,115,-280v0,-126,3,-279,-115,-279"},"P":{"d":"229,-298r0,298r-67,0r0,-667r145,0v118,0,184,63,184,177v0,124,-70,192,-162,192r-100,0xm229,-607r0,250r94,-1v62,-1,98,-48,98,-132v0,-114,-82,-123,-192,-117"},"Q":{"d":"435,-81r49,58r-51,42r-39,-47v-26,23,-59,37,-94,37v-93,0,-185,-92,-185,-342v0,-233,81,-343,185,-343v93,0,185,91,185,343v0,82,-9,179,-50,252xm353,-76r-85,-101r51,-43r70,83v20,-61,26,-129,26,-194v0,-76,-6,-282,-116,-282v-109,0,-114,209,-114,285v0,71,9,274,110,274v23,0,42,-6,58,-22"},"R":{"d":"229,-607r0,250r98,0v58,0,94,-43,94,-133v0,-122,-82,-121,-192,-117xm162,0r0,-667r180,0v66,0,149,57,149,177v0,82,-33,160,-115,188r138,286r-60,29r-150,-310r-75,0r0,297r-67,0"},"S":{"d":"461,-525r-65,10v-11,-49,-35,-98,-92,-98v-63,0,-88,51,-88,107v0,54,11,71,116,134v82,49,138,90,138,193v0,105,-56,188,-168,188v-118,0,-161,-78,-171,-184r67,-9v9,74,25,130,106,130v58,0,99,-39,99,-119v0,-88,-57,-118,-126,-158v-77,-45,-128,-77,-128,-175v0,-90,60,-170,155,-170v94,0,140,67,157,151"},"T":{"d":"268,0r0,-607r-144,0r0,-60r352,0r0,60r-141,0r0,607r-67,0"},"U":{"d":"137,-667r67,0r0,485v0,66,13,128,96,128v83,0,97,-63,97,-128r0,-485r67,0r0,505v0,104,-65,171,-164,171v-101,0,-163,-69,-163,-168r0,-508"},"V":{"d":"300,-181r138,-499r68,14r-198,679r-16,0r-198,-679r68,-14"},"W":{"d":"441,-680r67,13r-67,680r-29,0r-111,-403r-2,0r-111,403r-29,0r-67,-680r67,-13r32,501r2,0r97,-351r20,0r97,351r2,0"},"X":{"d":"301,-292r-148,305r-60,-28r174,-348r-143,-286r62,-31r114,249r114,-249r62,31r-143,286r174,348r-60,28"},"Y":{"d":"300,-341r144,-339r62,25r-173,392r0,263r-67,0r0,-263r-172,-392r62,-25"},"Z":{"d":"104,0r283,-607r-254,0r0,-60r355,0r-282,607r290,0r0,60r-392,0"},"[":{"d":"178,-676r270,0r0,60r-203,0r0,594r203,0r0,60r-270,0r0,-714"},"\\":{"d":"425,27r-296,-774r46,0r296,774r-46,0"},"]":{"d":"422,-676r0,714r-270,0r0,-60r203,0r0,-594r-203,0r0,-60r270,0"},"^":{"d":"160,-357r-50,0r164,-323r52,0r161,323r-50,0r-137,-275"},"_":{"d":"600,108r-600,0r0,-36r600,0r0,36"},"a":{"d":"393,-142r-185,0r-49,155r-66,-24r164,-510r86,0r164,510r-66,24xm374,-202r-74,-241r-74,241r148,0"},"b":{"d":"243,-60v92,-2,192,16,192,-84v0,-52,-34,-94,-98,-94r-94,0r0,178xm243,-298r75,0v58,0,87,-37,87,-84v0,-90,-80,-79,-162,-79r0,163xm334,0r-212,0r0,-60r54,0r0,-401r-54,0r0,-60r164,0v132,0,189,50,189,139v0,45,-19,85,-59,107v57,18,89,67,89,126v0,94,-62,149,-171,149"},"c":{"d":"432,-138r55,38v-42,66,-92,109,-173,109v-152,0,-200,-140,-200,-269v0,-208,110,-270,194,-270v81,0,128,42,165,111r-61,31v-22,-42,-52,-79,-103,-79v-104,0,-125,126,-125,206v0,81,19,207,125,207v61,0,92,-37,123,-84"},"d":{"d":"119,-461r0,-60r174,0v148,0,215,61,215,254v0,163,-28,267,-215,267r-174,0r0,-60r54,0r0,-401r-54,0xm240,-461r0,401v145,8,198,-13,198,-200v0,-196,-55,-207,-198,-201"},"e":{"d":"157,0r0,-521r325,0r0,60r-258,0r0,156r213,0r0,60r-213,0r0,185r258,0r0,60r-325,0"},"f":{"d":"176,0r0,-521r328,0r0,60r-261,0r0,156r219,0r0,60r-219,0r0,245r-67,0"},"g":{"d":"476,-278r0,230v-43,34,-107,57,-160,57v-153,0,-197,-142,-197,-270v0,-126,46,-269,195,-269v70,0,131,41,167,100r-57,37v-25,-42,-63,-74,-114,-74v-103,0,-121,129,-121,208v0,81,18,205,123,205v34,0,68,-9,97,-27r0,-137r-125,0r0,-60r192,0"},"h":{"d":"130,0r0,-521r67,0r0,216r206,0r0,-216r67,0r0,521r-67,0r0,-245r-206,0r0,245r-67,0"},"i":{"d":"193,0r0,-60r73,0r0,-401r-73,0r0,-60r214,0r0,60r-74,0r0,401r74,0r0,60r-214,0"},"j":{"d":"109,-194r67,0v-4,102,25,140,94,140v68,0,101,-41,101,-104r0,-363r67,0r0,376v0,74,-52,154,-168,154v-112,0,-161,-64,-161,-203"},"k":{"d":"229,-521r0,222r25,0r179,-235r51,40r-173,219r203,245r-51,43r-211,-257r-23,0r0,244r-67,0r0,-521r67,0"},"l":{"d":"170,0r0,-521r67,0r0,461r273,0r0,60r-340,0"},"m":{"d":"300,-147r-117,-275r-2,0r-13,422r-71,0r21,-521r88,0r94,226r94,-226r88,0r21,521r-71,0r-13,-422r-2,0"},"n":{"d":"126,0r0,-521r83,0r202,439v5,-40,-5,-93,-4,-137r0,-302r67,0r0,521r-83,0r-202,-439v-5,41,5,94,4,138r0,301r-67,0"},"o":{"d":"300,-530v83,0,185,60,185,270v0,42,-3,269,-185,269v-84,0,-185,-60,-185,-269v0,-208,99,-270,185,-270xm300,-467v-101,0,-115,130,-115,207v0,76,14,206,115,206v101,0,115,-130,115,-206v0,-77,-14,-207,-115,-207"},"p":{"d":"229,-224r0,224r-67,0r0,-521r162,0v121,0,168,66,168,142v0,157,-118,162,-263,155xm229,-284r92,0v66,0,101,-30,101,-90v-1,-107,-98,-85,-193,-87r0,177"},"q":{"d":"441,-70r59,54r-42,45r-58,-53v-29,22,-63,33,-100,33v-83,0,-185,-60,-185,-269v0,-199,91,-270,185,-270v83,0,185,60,185,270v0,61,-9,138,-44,190xm352,-68r-87,-79r41,-46r84,77v19,-45,25,-96,25,-144v0,-77,-14,-207,-115,-207v-101,0,-115,130,-115,207v0,76,14,206,115,206v18,0,36,-5,52,-14"},"r":{"d":"216,-283r88,0v65,0,108,-37,108,-96v0,-47,-28,-82,-88,-82r-108,0r0,178xm149,0r0,-521r177,0v87,0,156,41,156,142v0,64,-43,127,-106,146r128,211r-58,35r-133,-236r-97,0r0,223r-67,0"},"s":{"d":"131,-146r60,-19v13,64,44,111,114,111v55,0,98,-30,98,-88v0,-64,-54,-80,-105,-101v-76,-32,-148,-52,-148,-150v0,-88,71,-137,153,-137v87,0,138,50,159,131r-64,19v-12,-51,-39,-87,-96,-87v-43,0,-85,22,-85,69v0,49,30,63,70,81r111,49v47,26,72,68,72,122v0,99,-69,155,-165,155v-97,0,-158,-62,-174,-155"},"t":{"d":"268,0r0,-461r-144,0r0,-60r352,0r0,60r-141,0r0,461r-67,0"},"u":{"d":"137,-521r67,0r0,355v0,76,22,112,91,112v84,0,102,-37,102,-112r0,-355r67,0r0,387v0,69,-49,143,-164,143v-113,0,-163,-71,-163,-147r0,-383"},"v":{"d":"300,-152r142,-382r64,24r-200,523r-12,0r-200,-523r64,-24"},"w":{"d":"93,-526r69,-8r40,366r2,0r87,-256r18,0r87,256r2,0r41,-366r68,8r-75,539r-23,0r-109,-321r-109,321r-23,0"},"x":{"d":"300,-217r-139,230r-60,-34r161,-255r-147,-223r61,-35r124,198r124,-198r61,35r-147,223r161,255r-60,34"},"y":{"d":"300,-266r139,-268r63,33r-169,300r0,201r-67,0r0,-201r-168,-300r63,-33"},"z":{"d":"104,0r273,-461r-244,0r0,-60r355,0r-271,461r279,0r0,60r-392,0"},"{":{"d":"323,-199r0,140v-5,82,40,105,138,101r0,25r-33,0v-138,0,-172,-38,-172,-140r0,-132v0,-91,-32,-76,-105,-99v72,-25,105,-12,105,-100r0,-133v-8,-122,75,-147,205,-139r0,25v-99,-4,-138,19,-138,100r0,140v0,45,-1,82,-46,107v45,24,46,60,46,105"},"|":{"d":"278,288r0,-1080r44,0r0,1080r-44,0"},"}":{"d":"277,-410r0,-140v5,-82,-40,-105,-138,-101r0,-25r33,0v138,0,172,38,172,140r0,132v0,91,32,76,105,99v-72,25,-105,12,-105,100r0,133v8,122,-75,147,-205,139r0,-25v99,4,138,-19,138,-100r0,-140v0,-45,1,-82,46,-107v-45,-24,-46,-60,-46,-105"},"~":{"d":"538,-441r32,23v-29,54,-84,114,-150,114v-59,0,-188,-75,-240,-75v-62,0,-91,54,-119,100r-31,-23v30,-53,76,-121,145,-121v82,0,188,75,244,75v52,0,98,-49,119,-93"},"'":{"d":"254,-676r92,0r0,111r-27,135r-38,0r-27,-135r0,-111"},"`":{"d":"236,-695r177,101r-26,44r-187,-82"},"\u0131":{"d":"193,0r0,-60r73,0r0,-401r-73,0r0,-60r214,0r0,60r-74,0r0,401r74,0r0,60r-214,0"},"\u00c7":{"d":"432,-138r55,38v-35,56,-84,98,-148,107r-11,35v42,2,80,24,80,71v0,93,-130,89,-195,48r20,-51v23,11,48,20,74,20v13,0,31,-4,31,-20v0,-33,-65,-30,-85,-32r26,-72v-143,-26,-165,-216,-165,-339v0,-133,26,-343,200,-343v76,0,128,44,163,108r-57,34v-21,-42,-55,-79,-106,-79v-122,0,-130,192,-130,280v0,87,8,279,130,279v52,0,93,-43,118,-84"},"\u00d6":{"d":"300,-676v188,0,185,254,185,342v0,84,3,343,-185,343v-190,0,-185,-257,-185,-343v0,-110,7,-342,185,-342xm300,-613v-118,0,-115,181,-115,279v0,180,21,280,115,280v116,0,115,-164,115,-280v0,-126,3,-279,-115,-279xm208,-826v65,4,64,122,0,126v-65,-3,-64,-123,0,-126xm392,-826v65,4,64,122,0,126v-65,-3,-64,-123,0,-126"},"\u00dc":{"d":"137,-667r67,0r0,485v0,66,13,128,96,128v83,0,97,-63,97,-128r0,-485r67,0r0,505v0,104,-65,171,-164,171v-101,0,-163,-69,-163,-168r0,-508xm208,-826v65,4,64,122,0,126v-65,-3,-64,-123,0,-126xm392,-826v65,4,64,122,0,126v-65,-3,-64,-123,0,-126"},"\u00e7":{"d":"432,-138r55,38v-37,59,-81,99,-148,108r-11,34v42,2,80,24,80,71v0,93,-130,89,-195,48r20,-51v23,11,48,20,74,20v13,0,31,-4,31,-20v0,-33,-65,-30,-85,-32r26,-72v-124,-20,-165,-147,-165,-266v0,-208,110,-270,194,-270v81,0,128,42,165,111r-61,31v-22,-42,-52,-79,-103,-79v-104,0,-125,126,-125,206v0,81,19,207,125,207v61,0,92,-37,123,-84"},"\u00f6":{"d":"300,-530v83,0,185,60,185,270v0,42,-3,269,-185,269v-84,0,-185,-60,-185,-269v0,-208,99,-270,185,-270xm300,-467v-101,0,-115,130,-115,207v0,76,14,206,115,206v101,0,115,-130,115,-206v0,-77,-14,-207,-115,-207xm208,-680v65,4,64,122,0,126v-65,-3,-64,-123,0,-126xm392,-680v65,4,64,122,0,126v-65,-3,-64,-123,0,-126"},"\u00fc":{"d":"137,-521r67,0r0,355v0,76,22,112,91,112v84,0,102,-37,102,-112r0,-355r67,0r0,387v0,69,-49,143,-164,143v-113,0,-163,-71,-163,-147r0,-383xm208,-680v65,4,64,122,0,126v-65,-3,-64,-123,0,-126xm392,-680v65,4,64,122,0,126v-65,-3,-64,-123,0,-126"},"\u20a3":{"d":"332,-283r70,0v51,-3,80,-37,80,-96v0,-47,-17,-82,-65,-82r-85,0r0,178xm272,0r0,-521r147,0v69,0,123,41,123,142v0,64,-34,127,-84,146r101,211r-51,35r-105,-236r-71,0r0,223r-60,0xm16,0r0,-667r268,0r0,60r-201,0r0,220r159,0r0,60r-159,0r0,327r-67,0"},"\u20ac":{"d":"553,-622r0,70v-35,-33,-93,-61,-171,-61v-129,0,-195,87,-209,189r332,0r-21,53r-319,0v-3,19,-2,55,0,74r290,0r-21,53r-261,0v19,119,91,192,210,192v77,0,132,-27,170,-61r0,71v-28,24,-92,50,-178,50v-149,0,-245,-83,-271,-252r-76,0r21,-53r49,0v-1,-19,-2,-55,0,-74r-70,0r21,-53r54,0v22,-137,101,-251,272,-251v83,0,147,27,178,53"},"\u20a7":{"d":"417,0r0,-268r-77,0r0,-55r213,0r0,55r-76,0r0,268r-60,0xm114,-297r0,297r-67,0r0,-667r145,0v118,0,184,63,184,177v0,124,-70,193,-162,193r-100,0xm114,-607r0,250r94,0v62,0,98,-49,98,-133v0,-114,-82,-123,-192,-117"},"\u00a0":{}}});


